digraph Tree {
node [shape=box, style="filled, rounded", color="black", fontname="helvetica"] ;
edge [fontname="helvetica"] ;
0 [label="PetalLengthCm <= 2.45\ngini = 0.665\nsamples = 120\nvalue = [37, 44, 39]\nclass = Iris-versicolor", fillcolor="#f3fdf7"] ;
1 [label="gini = 0.0\nsamples = 37\nvalue = [37, 0, 0]\nclass = Iris-setosa", fillcolor="#e58139"] ;
0 -> 1 [labeldistance=2.5, labelangle=45, headlabel="True"] ;
2 [label="PetalWidthCm <= 1.75\ngini = 0.498\nsamples = 83\nvalue = [0, 44, 39]\nclass = Iris-versicolor", fillcolor="#e8fcf1"] ;
0 -> 2 [labeldistance=2.5, labelangle=-45, headlabel="False"] ;
3 [label="PetalLengthCm <= 5.35\ngini = 0.156\nsamples = 47\nvalue = [0, 43, 4]\nclass = Iris-versicolor", fillcolor="#4be78d"] ;
2 -> 3 ;
4 [label="PetalWidthCm <= 1.65\ngini = 0.085\nsamples = 45\nvalue = [0, 43, 2]\nclass = Iris-versicolor", fillcolor="#42e687"] ;
3 -> 4 ;
5 [label="PetalLengthCm <= 4.95\ngini = 0.045\nsamples = 43\nvalue = [0, 42, 1]\nclass = Iris-versicolor", fillcolor="#3ee684"] ;
4 -> 5 ;
6 [label="gini = 0.0\nsamples = 41\nvalue = [0, 41, 0]\nclass = Iris-versicolor", fillcolor="#39e581"] ;
5 -> 6 ;
7 [label="PetalLengthCm <= 5.05\ngini = 0.5\nsamples = 2\nvalue = [0, 1, 1]\nclass = Iris-versicolor", fillcolor="#ffffff"] ;
5 -> 7 ;
8 [label="gini = 0.0\nsamples = 1\nvalue = [0, 0, 1]\nclass = Iris-virginica", fillcolor="#8139e5"] ;
7 -> 8 ;
9 [label="gini = 0.0\nsamples = 1\nvalue = [0, 1, 0]\nclass = Iris-versicolor", fillcolor="#39e581"] ;
7 -> 9 ;
10 [label="SepalWidthCm <= 2.75\ngini = 0.5\nsamples = 2\nvalue = [0, 1, 1]\nclass = Iris-versicolor", fillcolor="#ffffff"] ;
4 -> 10 ;
11 [label="gini = 0.0\nsamples = 1\nvalue = [0, 0, 1]\nclass = Iris-virginica", fillcolor="#8139e5"] ;
10 -> 11 ;
12 [label="gini = 0.0\nsamples = 1\nvalue = [0, 1, 0]\nclass = Iris-versicolor", fillcolor="#39e581"] ;
10 -> 12 ;
13 [label="gini = 0.0\nsamples = 2\nvalue = [0, 0, 2]\nclass = Iris-virginica", fillcolor="#8139e5"] ;
3 -> 13 ;
14 [label="PetalLengthCm <= 4.85\ngini = 0.054\nsamples = 36\nvalue = [0, 1, 35]\nclass = Iris-virginica", fillcolor="#853fe6"] ;
2 -> 14 ;
15 [label="SepalWidthCm <= 3.0\ngini = 0.5\nsamples = 2\nvalue = [0, 1, 1]\nclass = Iris-versicolor", fillcolor="#ffffff"] ;
14 -> 15 ;
16 [label="gini = 0.0\nsamples = 1\nvalue = [0, 0, 1]\nclass = Iris-virginica", fillcolor="#8139e5"] ;
15 -> 16 ;
17 [label="gini = 0.0\nsamples = 1\nvalue = [0, 1, 0]\nclass = Iris-versicolor", fillcolor="#39e581"] ;
15 -> 17 ;
18 [label="gini = 0.0\nsamples = 34\nvalue = [0, 0, 34]\nclass = Iris-virginica", fillcolor="#8139e5"] ;
14 -> 18 ;
}